
\data\
ngram 1=10
ngram 2=14
ngram 3=1

\1-grams:
-1.414973	1	-0.8614885
-0.7160034	2	-1.137695
-1.414973	3	-0.8614885
-1.414973	4	-0.8614885
-0.7160034	</s>
-99	<s>	-1.229466
-0.8129134	BED	-1.358812
-0.8129134	GO	-0.606216
-0.8129134	PLEASE	-0.6264194
-1.414973	WARD	-0.8614885

\2-grams:
-0.05115252	1 </s>
-0.4191293	2 </s>
-0.243038	2 BED
-0.05115252	3 </s>
-0.05115252	4 </s>
-0.243038	<s> PLEASE
-0.4191293	<s> WARD
-0.615424	BED 1
-0.615424	BED 2
-0.615424	BED 3
-0.615424	BED 4
-0.09691001	GO 2	-0.3309932
-0.09691001	PLEASE GO
-0.05115252	WARD </s>

\3-grams:
-0.09691001	GO 2 BED

\end\
