
\data\
ngram 1=9
ngram 2=12
ngram 3=1

\1-grams:
-1.380211	1	-0.3979399
-1.380211	3	-0.3979399
-1.380211	4	-0.3979399
-0.7781513	</s>
-99	<s>	-0.6197888
-0.7781513	BED	-0.7781514
-0.7781513	GO	-0.5975124
-0.7781513	PLEASE	-0.6197888
-0.6812412	TO	-0.6690071

\2-grams:
-0.1760913	1 </s>
-0.1760913	3 </s>
-0.1760913	4 </s>
-0.09691001	<s> PLEASE
-0.6532125	BED 1
-0.6532125	BED 3
-0.6532125	BED 4
-0.6532125	BED TO
-0.09691001	GO TO	-0.3309932
-0.09691001	PLEASE GO
-0.544068	TO </s>
-0.243038	TO BED

\3-grams:
-0.09691001	GO TO BED

\end\
