Language model created by QuickLM on Thu Nov  5 04:20:47 EST 2020
Copyright (c) 1996-2010 Carnegie Mellon University and Alexander I. Rudnicky

The model is in standard ARPA format, designed by Doug Paul while he was at MITRE.

The code that was used to produce this language model is available in Open Source.
Please visit http://www.speech.cs.cmu.edu/tools/ for more information

The (fixed) discount mass is 0.5. The backoffs are computed using the ratio method.
This model based on a corpus of 5 sentences and 13 words

\data\
ngram 1=13
ngram 2=17
ngram 3=12

\1-grams:
-1.6435 1234 -0.2486
-1.6435 4 -0.2486
-0.9445 </s> -0.3010
-0.9445 <s> -0.2486
-1.6435 A -0.2486
-1.6435 ARE -0.2910
-1.6435 BED -0.2808
-1.6435 HOW -0.2910
-1.3424 NUMBER -0.2808
-1.6435 PARACETAMOL -0.2486
-1.6435 PATIENT -0.2808
-1.6435 WARD -0.2910
-1.6435 YOU -0.2486

\2-grams:
-0.3010 1234 </s> -0.3010
-0.3010 4 </s> -0.3010
-1.0000 <s> BED 0.0000
-1.0000 <s> HOW 0.0000
-1.0000 <s> PARACETAMOL 0.0000
-1.0000 <s> PATIENT 0.0000
-1.0000 <s> WARD 0.0000
-0.3010 A </s> -0.3010
-0.3010 ARE YOU 0.0000
-0.3010 BED NUMBER -0.1761
-0.3010 HOW ARE 0.0000
-0.6021 NUMBER 1234 0.0000
-0.6021 NUMBER 4 0.0000
-0.3010 PARACETAMOL </s> -0.3010
-0.3010 PATIENT NUMBER -0.1761
-0.3010 WARD A 0.0000
-0.3010 YOU </s> -0.3010

\3-grams:
-0.3010 <s> BED NUMBER
-0.3010 <s> HOW ARE
-0.3010 <s> PARACETAMOL </s>
-0.3010 <s> PATIENT NUMBER
-0.3010 <s> WARD A
-0.3010 ARE YOU </s>
-0.3010 BED NUMBER 4
-0.3010 HOW ARE YOU
-0.3010 NUMBER 1234 </s>
-0.3010 NUMBER 4 </s>
-0.3010 PATIENT NUMBER 1234
-0.3010 WARD A </s>

\end\
